tree
version=v3
num_class=1
num_tree_per_iteration=1
label_index=0
max_feature_idx=13
objective=tweedie
feature_names=item_id dept_id store_id cat_id state_id wday month year event_name_1 event_type_1 event_name_2 event_type_2 sell_price snap_flag
feature_infos=243:2055:58:1766:2606:601:800:1557:1582:1612:2067:30:282:557:1209:1680:2070:2432:2473:3025:347:1342:1518:1672:2564:40:55:228:533:1287:1959:2596:2610:2701:202:262:984:1062:1562:2009:2021:2225:2260:2386:314:360:676:854:1570:1837:2350:2461:2586:2672:160:505:539:580:677:1608:1676:1712:1757:1812:2925:3048:103:164:177:342:343:413:444:472:628:1131:1152:1293:1412:1438:1529:1751:1998:2242:2419:2628:2650:2683:2781:2791:3012:185:231:281:474:649:687:976:1110:1282:1331:1515:1882:1890:1981:2062:2068:2259:2282:2391:2574:2788:2837:81:140:247:365:392:398:511:521:560:650:730:885:921:932:950:1093:1114:1210:1223:1402:1520:1627:2059:2109:2330:2377:2503:2601:2666:2966:52:61:99:289:402:477:478:481:550:627:784:863:951:1112:1179:1188:1214:1308:1358:1386:1458:1492:1512:1747:1776:1825:1927:1970:1992:2020:2033:2237:2277:2288:2318:2368:2389:2422:2476:2704:2754:2821:2967:108:113:119:146:210:229:275:303:318:388:417:503:605:670:731:823:826:864:874:994:1016:1022:1029:1035:1081:1140:1158:1224:1269:1283:1345:1361:1377:1470:1524:1556:1695:1746:1859:1888:2012:2245:2261:2372:2504:2531:2627:2714:2939:2941:2971:2972:2976:2985:18:32:148:206:260:391:406:434:467:525:548:599:621:746:896:988:1026:1030:1109:1153:1154:1181:1375:1420:1449:1490:1730:1832:2134:2326:2441:2485:2549:2705:2740:2778:2830:3018:3019:51:69:230:393:415:429:451:473:476:486:494:514:517:527:528:590:713:717:752:765:778:794:844:919:922:970:1101:1124:1268:1427:1566:1716:1839:1846:1979:1986:2043:2052:2087:2097:2114:2121:2193:2215:2229:2241:2262:2287:2290:2292:2718:2737:2756:2800:2822:2864:3010:91:121:150:237:252:256:278:362:419:427:484:496:509:586:620:640:641:644:697:783:813:903:967:982:1007:1036:1038:1073:1086:1095:1113:1121:1136:1173:1325:1328:1334:1390:1401:1445:1489:1509:1565:1585:1600:1617:1654:1657:1668:1677:1686:1770:1787:1790:1840:1853:1875:1883:1886:1887:1917:1923:2034:2086:2204:2227:2284:2307:2314:2362:2373:2399:2463:2480:2482:2496:2560:2581:2617:2638:2680:2914:2929:2956:2987:2992:3009:3033:45:90:142:186:322:334:372:379:418:425:449:480:491:493:538:554:604:647:696:727:865:872:927:993:1014:1082:1172:1203:1221:1234:1335:1336:1382:1405:1517:1549:1609:1660:1666:1674:1724:1754:1797:1843:1907:1911:1922:1929:1940:1968:2039:2115:2182:2343:2397:2445:2484:2519:2524:2554:2555:2578:2585:2622:2636:2641:2687:2700:2706:2720:2723:2765:2850:2873:2904:2955:3032:46:49:63:67:93:118:120:178:188:195:254:338:339:340:345:412:422:563:565:573:592:593:633:664:795:803:819:868:878:887:891:966:1043:1141:1156:1167:1178:1305:1351:1478:1514:1559:1591:1597:1658:1659:1705:1728:1742:1748:1774:1789:1816:1881:1899:1967:1987:1997:1999:2006:2102:2122:2142:2147:2172:2208:2243:2273:2303:2348:2393:2408:2414:2494:2522:2523:2548:2715:2865:2866:2868:2896:2899:2938:2980:13:22:26:29:71:79:117:128:209:225:232:246:248:257:315:336:364:399:508:572:654:703:758:767:807:858:862:916:1037:1045:1048:1061:1065:1087:1099:1103:1132:1165:1174:1194:1213:1309:1311:1313:1317:1321:1340:1407:1417:1508:1594:1662:1685:1693:1723:1727:1767:1768:2011:2045:2065:2083:2179:2194:2247:2252:2253:2297:2306:2312:2316:2342:2356:2371:2387:2437:2456:2459:2492:2498:2532:2540:2580:2609:2623:2629:2662:2728:2751:2758:2795:2853:2888:2950:2965:2989:2991:3007:3046:56:64:125:139:161:167:173:174:191:208:244:304:309:333:420:432:437:438:452:465:471:507:544:587:611:642:643:660:699:701:740:861:926:1005:1032:1056:1075:1097:1100:1135:1142:1159:1195:1212:1219:1252:1295:1304:1306:1307:1339:1462:1467:1477:1503:1525:1533:1546:1563:1567:1577:1579:1584:1607:1610:1625:1631:1664:1702:1714:1737:1777:1792:1793:1834:1841:1897:1949:1990:2073:2089:2143:2157:2168:2177:2196:2207:2270:2294:2340:2345:2352:2383:2416:2447:2502:2557:2645:2696:2739:2794:2797:2812:2863:2886:2895:2900:2988:3038:3047:35:70:74:76:124:138:159:190:227:242:266:302:306:325:330:332:335:357:386:403:405:499:512:524:638:682:718:722:757:770:780:809:811:817:829:837:850:915:962:972:973:1002:1011:1019:1041:1044:1091:1138:1148:1164:1166:1189:1192:1227:1235:1247:1260:1263:1279:1284:1332:1366:1434:1444:1446:1472:1475:1502:1506:1523:1544:1581:1587:1614:1629:1632:1725:1750:1791:1803:1810:1813:1844:1896:1942:1976:2038:2078:2094:2139:2150:2274:2293:2324:2329:2332:2392:2423:2460:2507:2509:2516:2534:2537:2559:2637:2669:2770:2780:2785:2838:2877:2893:2945:2970:2982:2986:2993:3001:3016:3028:3030:3041:3045:8:23:27:60:88:114:122:155:162:217:268:293:319:327:337:351:374:396:414:435:458:459:461:501:506:531:567:591:609:612:665:681:683:724:732:754:755:772:779:820:833:846:892:957:989:1006:1012:1050:1055:1058:1079:1106:1118:1176:1220:1281:1285:1290:1421:1440:1460:1463:1474:1606:1624:1639:1667:1700:1707:1775:1780:1794:1798:1809:1852:1855:1879:1894:1913:1944:1948:1952:1957:1971:1991:2040:2104:2111:2151:2169:2231:2248:2283:2299:2337:2347:2421:2468:2472:2478:2512:2514:2543:2547:2570:2589:2600:2615:2639:2640:2656:2682:2731:2766:2774:2798:2810:2818:2848:2855:2885:2891:2951:2975:2981:3024:3027:3037:3039:28:59:77:83:100:153:205:224:240:290:296:328:329:352:361:370:382:410:421:433:436:442:450:482:488:522:555:598:637:663:684:700:710:711:716:788:797:799:810:816:842:845:848:859:875:881:893:894:924:935:936:963:979:1015:1028:1068:1070:1076:1089:1094:1127:1168:1190:1202:1233:1264:1277:1280:1288:1301:1319:1367:1383:1387:1399:1439:1447:1496:1537:1553:1578:1595:1598:1620:1630:1635:1637:1644:1647:1651:1678:1696:1735:1769:1806:1823:1833:1872:1873:1955:1975:1983:2001:2018:2120:2126:2188:2236:2279:2311:2353:2378:2379:2396:2420:2434:2479:2487:2500:2577:2590:2594:2624:2676:2697:2735:2736:2750:2752:2753:2763:2776:2787:2796:2816:2817:2827:2871:2884:2897:2898:2996:3031:3:4:24:82:86:97:106:134:141:200:216:233:255:263:284:285:299:301:316:320:331:341:358:366:404:441:479:489:490:502:532:562:595:603:626:645:659:671:692:693:704:708:761:792:828:849:857:869:871:879:914:947:954:961:965:977:1008:1053:1063:1092:1111:1170:1177:1193:1253:1286:1314:1343:1362:1374:1380:1414:1425:1431:1479:1528:1539:1545:1575:1583:1603:1623:1626:1638:1661:1670:1681:1694:1721:1731:1740:1745:1761:1765:1778:1796:1856:1877:1954:1977:2002:2003:2024:2036:2060:2061:2081:2085:2105:2108:2112:2129:2136:2146:2155:2176:2268:2308:2351:2395:2411:2413:2431:2438:2442:2450:2486:2493:2541:2558:2584:2588:2592:2605:2651:2667:2678:2689:2767:2803:2809:2819:2841:2847:2876:2915:2931:2934:2954:10:14:20:50:57:129:169:179:189:193:201:235:239:273:287:300:307:324:385:389:447:455:464:541:566:597:607:629:648:667:720:723:734:751:771:786:835:912:931:958:975:1000:1149:1161:1191:1250:1320:1329:1330:1346:1350:1359:1393:1410:1419:1423:1437:1451:1457:1465:1469:1471:1494:1513:1527:1551:1564:1568:1596:1642:1643:1646:1663:1671:1679:1691:1701:1715:1741:1752:1762:1763:1773:1785:1829:1867:1870:1871:1891:1893:1924:1930:1963:1989:2029:2046:2090:2093:2098:2159:2161:2173:2181:2199:2201:2239:2275:2319:2325:2404:2409:2415:2424:2427:2448:2515:2533:2582:2595:2604:2607:2613:2618:2630:2658:2685:2707:2712:2719:2755:2757:2764:2775:2786:2790:2802:2872:2875:2901:2916:2932:2958:2977:2998:3023:3042:34:41:65:68:111:123:143:152:171:192:196:204:220:221:238:253:259:279:297:424:431:485:513:518:519:536:542:561:582:585:589:610:619:658:673:680:695:714:725:726:735:744:756:763:768:773:787:789:790:805:824:876:886:930:956:974:986:997:999:1027:1033:1042:1059:1066:1074:1084:1104:1119:1120:1184:1201:1215:1216:1231:1246:1294:1324:1333:1341:1344:1349:1360:1442:1466:1468:1482:1486:1488:1501:1507:1519:1521:1526:1530:1534:1543:1561:1574:1605:1622:1633:1640:1645:1687:1744:1784:1805:1811:1814:1835:1858:1860:1895:1903:1985:1996:2014:2017:2037:2080:2107:2119:2130:2153:2183:2198:2226:2234:2244:2251:2263:2310:2331:2359:2364:2417:2425:2435:2451:2465:2466:2491:2505:2508:2511:2517:2525:2550:2572:2608:2612:2686:2703:2727:2730:2738:2746:2831:2869:2870:2883:2911:2927:2930:2933:2935:2944:2968:2990:3015:3036:3044:19:75:84:92:95:154:176:181:218:251:261:283:291:292:305:350:355:395:445:454:456:460:475:537:583:588:646:653:689:690:712:782:791:806:821:825:832:840:907:920:942:959:1009:1051:1064:1071:1077:1098:1151:1157:1207:1240:1258:1272:1315:1316:1318:1327:1381:1389:1429:1432:1443:1464:1491:1497:1532:1547:1552:1571:1576:1580:1634:1652:1732:1749:1753:1779:1786:1799:1808:1908:1935:1964:1972:1994:2005:2026:2030:2044:2054:2058:2069:2071:2099:2137:2156:2164:2180:2195:2213:2214:2230:2235:2250:2286:2298:2305:2334:2336:2344:2366:2380:2398:2449:2510:2597:2598:2614:2644:2653:2657:2668:2684:2733:2768:2825:2833:2842:2845:2903:2908:2910:2920:2921:2922:2940:2948:2953:2959:2969:2997:2999:3003:3034:3043:16:17:37:73:101:105:110:180:182:183:197:265:276:376:380:381:394:457:463:487:504:516:540:575:602:636:655:661:672:688:698:728:729:739:749:750:753:814:880:899:900:904:987:995:1004:1020:1023:1096:1126:1133:1144:1182:1186:1198:1205:1245:1256:1257:1271:1273:1274:1297:1298:1337:1368:1378:1391:1411:1416:1424:1441:1454:1511:1516:1550:1572:1611:1621:1683:1711:1782:1807:1830:1847:1866:1900:1902:1906:1909:1910:1925:1932:1978:2041:2064:2072:2096:2101:2171:2190:2203:2216:2219:2276:2322:2335:2341:2358:2374:2388:2412:2452:2483:2490:2529:2530:2551:2552:2576:2587:2611:2619:2635:2643:2647:2652:2674:2675:2679:2690:2693:2694:2698:2711:2713:2721:2741:2744:2745:2772:2777:2789:2852:2856:2857:2859:2862:2892:2907:2949:2978:3013:3040:7:38:48:96:98:102:126:158:172:222:226:250:258:269:272:277:298:317:346:428:446:510:526:543:552:578:581:635:656:736:737:738:775:781:856:902:910:929:939:946:952:1021:1083:1105:1115:1155:1175:1199:1230:1239:1251:1261:1265:1278:1289:1299:1300:1322:1352:1363:1369:1370:1371:1397:1400:1413:1415:1430:1480:1540:1586:1602:1604:1615:1648:1650:1656:1688:1736:1755:1845:1854:1876:1884:1905:1938:1953:1966:2008:2042:2047:2051:2056:2124:2160:2175:2185:2192:2210:2217:2228:2295:2349:2370:2385:2406:2439:2506:2527:2542:2562:2579:2593:2599:2625:2634:2661:2716:2742:2743:2760:2806:2808:2832:2834:2836:2858:2874:2881:2905:2912:2918:2961:3014:3022:3035:2:5:6:44:85:149:157:184:199:207:212:267:310:313:359:367:387:411:426:439:468:483:492:546:558:608:613:617:622:632:634:685:707:766:776:798:815:838:855:890:895:913:925:933:953:980:985:1049:1057:1060:1088:1122:1160:1197:1200:1217:1226:1259:1262:1323:1326:1338:1365:1396:1403:1422:1433:1435:1481:1498:1510:1536:1558:1573:1599:1619:1665:1689:1698:1703:1760:1772:1800:1817:1819:1827:1831:1851:1862:1874:1885:1916:1931:1937:1945:1956:1988:2092:2100:2165:2167:2240:2269:2289:2301:2302:2315:2327:2355:2357:2426:2475:2553:2556:2633:2642:2649:2660:2717:2762:2844:2890:2924:2926:2937:2942:2952:2957:2960:2964:2979:2983:3000:3017:135:219:294:323:363:369:400:408:416:462:469:500:535:549:551:559:571:574:576:579:616:618:623:668:679:706:742:774:785:796:822:830:839:843:905:917:938:940:991:992:1018:1067:1072:1123:1147:1180:1237:1242:1267:1275:1292:1302:1310:1312:1379:1392:1404:1483:1485:1500:1541:1588:1641:1669:1709:1717:1722:1743:1756:1759:1822:1848:1869:1946:1960:1973:1984:1993:2048:2053:2057:2066:2084:2095:2110:2123:2154:2163:2187:2232:2238:2258:2266:2280:2317:2321:2338:2400:2402:2418:2440:2457:2467:2470:2471:2526:2569:2626:2631:2654:2659:2670:2681:2695:2702:2724:2732:2749:2761:2783:2835:2843:2851:2860:2867:2882:2902:2919:2995:3006:3020:3026:25:53:62:107:116:151:165:166:170:198:215:223:249:344:375:383:423:497:529:568:606:615:705:709:743:777:793:812:847:888:901:944:949:964:968:1025:1040:1046:1078:1080:1116:1211:1229:1232:1238:1243:1248:1296:1303:1348:1353:1354:1372:1373:1388:1436:1448:1505:1548:1613:1653:1682:1699:1708:1795:1802:1842:1850:1861:1898:1912:1915:1920:1939:1947:1965:2027:2091:2103:2116:2127:2135:2140:2218:2256:2278:2320:2384:2403:2407:2410:2428:2454:2481:2488:2538:2539:2563:2565:2575:2663:2677:2692:2708:2804:2807:2813:2828:2829:2849:2854:2878:2909:2923:2947:2962:9:43:47:66:89:109:131:144:156:187:213:245:288:308:348:371:373:378:430:523:564:569:624:639:651:694:721:769:818:827:831:851:870:884:897:898:908:928:943:998:1003:1010:1017:1031:1054:1069:1128:1129:1134:1143:1146:1150:1162:1163:1185:1208:1225:1376:1398:1455:1459:1473:1484:1493:1538:1618:1719:1720:1764:1783:1788:1821:1836:1838:1914:1933:1936:1961:1962:1969:1995:2000:2004:2015:2032:2113:2117:2166:2170:2197:2206:2211:2220:2222:2323:2346:2363:2365:2376:2381:2390:2436:2453:2477:2489:2513:2545:2561:2632:2664:2688:2722:2747:2799:2823:2880:2963:2973:2984:11:21:42:145:147:241:270:271:286:295:321:353:354:377:443:515:530:545:556:625:715:808:836:873:909:923:983:1052:1107:1171:1183:1218:1241:1255:1266:1356:1406:1409:1453:1456:1461:1535:1542:1590:1704:1738:1771:1801:1868:1892:1901:1950:1974:2028:2031:2049:2074:2125:2158:2162:2189:2200:2202:2212:2223:2224:2233:2265:2267:2272:2291:2304:2339:2394:2401:2430:2433:2455:2464:2521:2546:2621:2729:2771:2782:2861:2906:2936:2946:3005:15:33:78:112:132:214:236:311:368:397:553:600:614:652:657:686:741:745:747:764:804:834:866:971:1047:1137:1187:1204:1357:1385:1395:1522:1560:1592:1593:1628:1655:1673:1690:1692:1710:1758:1804:1815:1864:1919:1941:1982:2023:2025:2106:2118:2131:2144:2145:2152:2257:2313:2446:2518:2566:2591:2602:2691:2725:2726:2779:2792:2801:2805:2814:2826:2943:3004:3008:3011:3021:31:104:115:137:168:175:211:312:349:356:440:453:498:584:630:702:762:801:941:945:981:1024:1034:1108:1196:1206:1228:1276:1364:1426:1452:1504:1569:1697:1820:1824:1863:1878:1980:2010:2013:2050:2128:2132:2141:2246:2249:2254:2264:2281:2285:2309:2333:2367:2369:2375:2429:2444:2469:2501:2528:2646:2655:2820:39:54:72:80:130:133:163:194:203:326:390:631:662:748:802:867:906:911:918:1125:1139:1222:1384:1450:1487:1601:1675:1718:1781:1849:1921:2016:2019:2082:2149:2209:2255:2497:2535:2568:2583:2603:2784:2793:2815:2824:2840:2887:2894:2917:2928:3029:0:384:401:407:448:470:577:678:733:860:877:1039:1085:1117:1254:1394:1531:1555:1649:1729:1818:1926:1934:2007:2079:2191:2296:2361:2544:2748:2759:2769:2811:12:264:547:594:666:841:882:889:990:1236:1418:1713:1857:1904:1928:1951:2035:2077:2300:2328:2458:2474:2495:2499:2567:2710:2913:3002:1:87:127:280:466:596:691:719:760:853:883:937:955:960:1090:1145:1249:1270:1355:1589:1616:1706:1733:1828:1918:1958:2138:2186:2360:2405:2462:2536:2571:2616:2773:2846:2879:2889:274:978:1001:1130:1244:1347:1495:1499:1554:1636:1684:1726:1880:2022:2063:2573:2620:2648:2665:2671:2709:94:136:234:409:534:1013:1291:1408 6:2:3:0:5:4:1 2:3:7:5:0:9:6:4:8:1 2:1:0 1:0:2 2:1:3:5:4:6:7 3:8:12:1:10:7:5:11:6:4:9:2 2015:2016 26:0:5:10:3:21:6:8:9:23:2:13:17:1:20:18:4:19:25:27:30:12:15:7:28:14:24:16:22:11:29 3:0:2:1:4 none none [0.04998779296875:45.3125] 1:0
tree_sizes=3922 3347 3922 1180 3900 3519 1193 3947 1182 3057

Tree=0
num_leaves=10
num_cat=9
split_feature=0 0 0 0 0 0 0 0 0
split_gain=8.75497e+06 2.71551e+06 1.78196e+06 1.28285e+06 978781 741752 582520 465788 375824
threshold=0 1 2 3 4 5 6 7 8
decision_type=9 9 9 9 9 9 9 9 9
left_child=-1 -2 -3 -4 -5 -6 -7 -8 -9
right_child=1 2 3 4 5 6 7 8 -10
leaf_value=0.68201036076251298 0.52660383634833796 0.47761132230742093 0.44260609649020238 0.41642194018817885 0.391825717232406 0.37216188659499294 0.35536426346703176 0.34049637522136816 0.21216799047358095
leaf_weight=287436.12252759933 201370.19659090042 183660.91018819809 173164.90941870213 165438.46474254131 159327.49140024185 154688.71433258057 151034.1508077383 148056.10578584671 10763991.258937597
leaf_count=104736 104734 104540 104640 104312 104386 104395 104471 104617 8990107
internal_value=0 -0.129634 -0.191261 -0.239714 -0.280245 -0.315361 -0.345792 -0.372739 -0.396879
internal_weight=0 1.21007e+07 1.18994e+07 1.17157e+07 1.15425e+07 1.13771e+07 1.12178e+07 1.10631e+07 1.0912e+07
internal_count=9930938 9826202 9721468 9616928 9512288 9407976 9303590 9199195 9094724
cat_boundaries=0 95 189 283 378 473 568 663 755 850
cat_threshold=0 0 0 0 0 0 0 0 0 0 0 0 0 0 0 0 0 0 0 0 2147483648 0 0 0 0 0 0 268435456 0 0 0 4194304 0 0 0 0 0 0 0 0 0 0 0 0 0 0 0 0 0 0 1073741824 0 0 0 4194304 0 0 0 0 0 0 0 0 0 0 0 0 256 0 0 0 0 525313 256 0 67108864 67371008 4096 66560 0 0 2097920 0 0 0 8 134217728 201326592 32768 0 33554432 33554496 131076 0 19005440 0 0 0 0 0 0 0 0 0 0 0 0 0 0 0 0 0 0 128 0 0 0 0 0 0 0 536870912 0 8194 0 8192 268436480 0 1048576 0 0 0 0 0 0 0 0 0 0 0 0 0 0 65536 0 524288 0 0 0 0 0 0 0 0 0 2048 0 0 0 0 0 0 0 1024 16777216 0 4194304 64 0 0 0 0 0 8388608 16384 67108864 0 0 1140850688 134217728 1048612 532480 0 0 2048 0 4202496 536870912 1073741826 0 32768 0 0 0 0 0 4 0 0 33554432 0 0 0 0 0 0 0 0 32 0 64 0 8 0 0 8 2097152 0 67371008 16 2048 0 0 0 0 0 0 0 0 0 0 0 0 0 0 0 0 8 512 0 2 1073741824 0 0 0 0 0 0 0 134217728 0 0 0 0 4194304 0 536870912 0 0 0 65536 0 8388608 0 0 0 0 0 32768 8192 0 4176 8388608 0 0 0 1048576 0 0 4096 512 2097152 32 0 0 0 0 33554432 0 0 4194304 16 0 0 1024 0 0 0 0 0 0 0 1048576 131104 0 0 4194304 0 8192 1073741824 0 0 0 16777216 0 0 73728 0 0 0 0 0 0 0 0 0 0 0 0 0 0 1073742848 4096 65536 0 0 0 16 0 0 0 0 0 0 0 0 0 1 0 0 0 0 0 32768 536870912 536870912 16777216 0 0 1048576 0 0 33554944 0 0 0 4194304 0 268435456 4 0 0 0 67108864 0 262144 0 4 0 0 0 0 0 8192 0 0 0 0 528384 0 0 0 0 0 0 0 0 0 134217728 0 128 32768 67108928 0 0 0 0 0 33554432 4 0 0 0 0 0 0 0 0 0 0 0 0 0 0 0 0 0 0 0 2048 0 0 0 0 0 0 4194304 16384 32 4 0 0 524288 0 0 128 2097152 0 134217728 0 0 0 0 0 33554432 32 512 131072 4096 33554432 0 4096 512 0 0 0 0 1342177280 0 128 4096 0 536870912 278656 0 0 0 0 8388608 0 4096 1073758208 0 0 512 2048 0 0 0 0 0 134217728 0 0 0 0 0 0 0 0 0 0 0 0 0 16 0 0 0 0 0 0 0 0 0 0 0 0 0 0 0 0 0 0 0 0 64 0 1168 0 0 0 0 0 0 0 0 0 0 0 0 262144 65536 0 0 0 6291456 0 0 0 0 0 0 134217728 2147483664 8200 0 1024 32896 0 1024 0 0 65568 0 0 4096 4194304 2147483648 0 2 4 0 0 0 553648128 0 0 0 67108864 0 0 0 0 0 0 0 33554432 0 0 8 0 0 0 0 0 0 0 0 0 0 0 4 0 0 0 0 0 0 0 0 0 0 0 0 0 0 0 0 0 2147483648 1049088 256 4096 32768 0 0 0 8192 0 0 0 4194304 0 0 268435456 1073741824 0 0 0 0 0 1024 0 0 0 0 9437184 8 4 0 0 8224 0 0 0 0 4096 0 1 8388608 4 16640 8192 0 0 0 0 0 0 2 16777216 32768 0 0 32 0 0 0 0 0 0 67108880 0 0 536870912 0 0 2097216 0 0 0 4 32 0 32 0 0 0 0 0 0 0 0 0 0 0 0 0 0 0 0 256 0 16384 0 0 2097152 0 512 0 0 67108864 0 0 0 0 0 0 0 2147483648 16384 34078720 0 0 134217856 0 0 0 524288 262144 268435456 0 0 0 0 520 0 1073741824 4096 0 0 0 0 32768 32768 0 0 0 0 0 0 0 0 0 0 1048576 0 0 0 0 0 0 0 0 0 0 0 0 131072 0 512 1 0 16384 0 0 33554432 32 128 0 0 0 0 0 0 0 0 0 0 0 0 0 0 0 2097152 1073741856 8388608 0 0 0 0 0 0 0 0 0 0 0 0 0 256 1 0 0 0 268697600 2097152 512 0 0 0 0 1073741824 0 0 0 0 0 0 0 262160 278594 64 1048576 0 16 65536 134217728 2147483648
shrinkage=1


Tree=1
num_leaves=10
num_cat=9
split_feature=0 0 0 0 1 0 0 0 0
split_gain=6.32161e+06 1.98739e+06 1.33215e+06 987467 877174 674744 601774 431655 402271
threshold=0 1 2 3 4 5 6 7 8
decision_type=9 9 9 9 1 9 9 9 9
left_child=8 -2 -3 -4 6 -6 -5 -8 -1
right_child=1 2 3 4 5 -7 7 -9 -10
leaf_value=0.48509409644441498 0.22039878548192282 0.18585377248290275 0.16038009690821195 0.13851076555264999 0.10700987379015989 -0.058040668563102971 0.11649129567108472 -0.011407006246259349 0.2888101316408257
leaf_weight=92545.006368279457 235366.856980443 208837.75400447845 195197.85454010963 183260.87990224361 165348.10507178307 3834649.2549004555 173073.48519587517 6959956.372335434 241147.10242331028
leaf_count=19715 104749 104324 104537 104143 104974 3397931 104541 5800915 85109
internal_value=0 -0.12203 -0.179808 -0.225219 -0.263686 -0.640221 -0.057824 -0.103795 4.29075
internal_weight=0 1.19557e+07 1.17203e+07 1.15115e+07 1.13163e+07 4e+06 7.31629e+06 7.13303e+06 333692
internal_count=9930938 9826114 9721365 9617041 9512504 3502905 6009599 5905456 104824
cat_boundaries=0 95 190 284 379 380 420 515 610 698
cat_threshold=0 0 0 0 0 0 0 0 0 0 0 0 0 0 0 0 0 0 0 0 2147483648 0 0 0 0 0 0 268435456 0 0 8192 272629760 0 0 0 0 0 0 0 0 0 0 0 0 0 0 0 0 0 0 0 0 0 0 4194304 0 0 0 0 0 0 0 0 0 0 0 0 256 1024 0 0 0 525313 256 0 67108864 67371008 4096 66560 0 0 512 0 67108864 0 8 134217728 201326592 32768 0 33554432 33554496 131076 0 16908288 0 0 0 0 0 0 0 0 0 0 0 0 0 0 0 0 0 0 128 0 0 0 0 0 0 0 536870912 0 2 0 0 1024 0 1048576 0 0 0 0 0 0 0 0 0 0 0 0 0 0 65536 0 1074266112 0 0 0 0 0 0 0 0 0 2048 0 0 0 0 0 0 0 0 16777216 0 0 64 8388608 0 0 0 0 8388608 16384 67108864 2097408 16 1082130432 134217728 1048612 8192 0 0 2048 0 4202496 538968064 2 2097152 0 32768 0 0 0 0 0 4 0 0 0 0 0 0 0 0 0 0 0 0 131072 0 0 8 0 8192 8 2097152 8192 67371008 16 2048 0 0 0 0 0 0 0 0 0 0 0 0 0 0 0 0 1073742856 512 0 2 0 0 0 0 0 0 0 0 134217728 0 0 0 0 0 0 536870912 0 0 0 4259840 536870912 0 0 0 1048576 0 0 32768 8192 0 4160 0 0 0 524288 1048576 0 0 4096 0 0 1073741856 0 0 0 0 33554432 8192 0 4194304 0 0 33554432 1024 0 0 0 0 0 0 0 32 32 64 0 4227072 0 0 0 0 0 0 16777216 4 0 73728 0 0 0 0 0 0 0 0 0 0 0 0 0 0 0 4096 65536 0 1073741824 0 16 0 0 0 0 0 0 0 0 0 1 4194304 0 0 2097152 0 32768 0 0 0 0 0 0 0 0 33554944 0 0 0 4198400 0 268435456 4 0 0 0 67108864 512 262144 0 4 116 2684674176 0 2 4 2 8388624 0 553652226 1090535440 32768 17305600 68157952 2080 0 0 0 0 0 0 0 0 0 0 0 0 0 0 0 0 0 0 0 0 0 0 1048576 0 4194304 0 16777216 0 0 0 0 0 0 0 0 0 0 0 0 0 0 0 0 0 0 0 1048576 134217728 0 128 0 67108928 0 1073741824 0 0 0 33554432 0 16 0 0 0 0 0 0 0 0 0 0 0 0 0 0 0 0 0 0 2048 0 64 0 0 0 0 4194304 16384 32 4 0 0 524288 0 0 128 0 0 134217728 536870912 0 16777216 0 0 33554432 0 512 131072 134221824 33554432 0 0 512 128 0 0 0 1342177280 0 128 4096 0 536870912 0 0 0 0 0 0 0 0 0 0 0 0 0 0 0 0 0 0 134217728 33554432 0 0 0 0 0 0 0 0 0 0 0 0 0 0 0 0 0 0 0 0 0 0 0 0 0 0 0 0 0 0 0 0 0 1049088 0 1168 32768 0 0 0 8192 0 0 0 4194304 0 0 0 1074003968 65536 0 0 0 6291456 1024 0 0 32 0 1048576 0 2147483664 8200 0 9216 32768 0 1024 0 0 65568 1 0 4096 4210688 0 0 0 0 0 0 0 0 0 0 0 0 0 0 0 0 0 0 0 0 0 0 0 0 0 0 0 0 0 0 0 0 0 0 0 0 0 0 0 0 0 0 0 0 0 0 0 0 0 0 0 0 0 0 0 0 0 0 0 0 0 0 0 0 0 0 0 0 0 0 0 0 1024 256 0 0 0 4096 0 0 0 0 0 0 0 0 134217728 201326592
shrinkage=0.08


Tree=2
num_leaves=10
num_cat=9
split_feature=0 0 0 0 0 0 0 0 0
split_gain=4.57073e+06 1.50944e+06 1.02258e+06 766020 605148 472007 428835 354086 327721
threshold=0 1 2 3 4 5 6 7 8
decision_type=9 9 9 9 9 9 9 9 9
left_child=-1 -2 -3 -4 -5 -6 -7 -8 -9
right_child=1 2 3 4 5 6 7 8 -10
leaf_value=0.27269967717314575 0.17715767261566437 0.15173165799100155 0.13247979603554022 0.11741480890750483 0.10590443277441469 0.099374515241702002 0.092099215357413375 0.087265161528444019 -0.030175193095673434
leaf_weight=380045.02156448364 271892.98578643799 234728.33593714237 215334.48186194897 201781.45070838928 180460.99670386314 175753.93207776546 158357.7967056036 154355.82848250866 10238867.530932546
leaf_count=104629 104437 104423 104440 104273 104535 104394 104664 104499 8990644
internal_value=0 -0.114435 -0.169215 -0.212035 -0.248244 -0.279988 -0.306969 -0.332774 -0.355387
internal_weight=0 1.18315e+07 1.15596e+07 1.13249e+07 1.11096e+07 1.09078e+07 1.07273e+07 1.05516e+07 1.03932e+07
internal_count=9930938 9826309 9721872 9617449 9513009 9408736 9304201 9199807 9095143
cat_boundaries=0 95 190 284 379 474 569 664 759 854
cat_threshold=0 0 0 0 0 0 0 0 0 0 0 0 0 0 0 0 0 0 0 0 2147483648 0 0 0 0 0 0 268435456 0 0 8192 4194304 0 1048576 0 0 0 0 0 0 0 0 0 0 0 0 0 0 0 0 1073741824 0 0 0 4194304 0 0 0 0 0 0 0 0 0 0 0 0 0 1024 0 0 0 1025 256 0 67108864 67371008 4096 8455168 0 0 512 0 1140850688 0 1048584 134217728 201326592 0 0 33554432 33554496 4 0 16908288 0 0 0 0 0 0 0 0 0 0 0 0 0 0 0 0 0 0 0 0 0 0 0 0 0 0 536870912 0 8194 0 0 268436480 0 0 0 0 0 0 0 0 0 0 0 0 0 0 0 0 0 0 524288 0 0 0 0 0 0 0 0 0 2048 0 0 0 0 0 0 536871168 0 16777216 0 0 524352 0 0 0 0 0 0 49152 67108864 2097408 0 8388608 134217728 36 8192 0 32768 2048 0 4202496 539099136 1073741826 2097152 0 32768 0 0 0 0 0 0 0 0 33554432 0 0 0 0 0 0 0 128 32 131072 64 0 8 0 0 8 2097152 0 67108864 16 2048 0 0 0 0 0 0 0 0 0 0 0 0 0 0 0 0 66568 512 0 2 1073741824 0 0 0 0 0 0 0 134217728 0 0 0 0 0 0 0 0 0 0 4259840 0 8388608 0 0 0 0 0 0 8192 0 4176 0 0 0 524288 1048576 0 0 67112960 512 0 32 0 0 0 0 33554432 0 0 4194308 16 0 524288 1024 0 0 0 0 0 0 0 1048576 32 0 0 4194304 0 8192 0 0 0 262144 0 0 0 73728 0 0 0 0 0 0 0 0 0 0 0 0 0 0 1073741824 4096 65536 0 0 0 16 0 0 0 0 0 0 0 0 0 1 4194304 0 0 0 0 32768 536870912 536870912 0 0 0 1048576 0 0 33554944 4096 0 0 4194304 0 268435456 4 0 0 0 0 128 262144 0 4 128 0 0 0 0 8192 0 0 0 0 4096 512 0 0 0 0 0 0 0 0 134217728 0 128 32768 67108928 0 1073741824 0 0 0 50331648 4 0 0 0 0 0 0 0 0 0 0 0 0 0 0 0 0 0 0 0 2048 0 0 0 0 0 0 4194304 16384 32 4 0 0 524288 0 0 128 2097152 0 134217728 0 0 16777216 0 0 33554432 0 512 0 0 33554432 0 4096 512 0 0 0 0 1342177280 0 0 4096 0 536870912 262144 0 0 0 0 8388608 0 0 16384 0 0 0 2048 0 0 0 0 0 0 0 0 0 8 0 0 0 0 0 0 4 0 0 16 0 4 0 0 0 0 0 0 0 0 0 0 0 0 0 0 0 0 0 2147483648 64 256 5264 0 0 0 0 0 0 0 0 0 0 0 268435456 0 0 0 0 0 6291456 0 0 0 32 0 8519680 134217728 2147483652 0 8 32 128 4096 1024 0 4096 0 0 0 4096 256 16384 0 0 0 0 0 0 16781312 1073741824 0 0 67108864 0 0 0 0 0 0 0 0 0 0 536870912 0 0 2097152 0 0 0 0 32 0 0 0 0 0 0 0 0 0 0 0 0 0 0 0 0 0 0 256 0 16384 0 512 0 0 0 0 0 67108864 8192 0 0 0 0 0 0 0 278528 33619968 0 0 134217856 0 0 0 524288 0 0 0 8 16 8200 0 1024 1073774592 0 0 0 0 65568 0 8388608 4 4194304 0 0 0 4 0 0 0 0 0 0 0 0 0 0 0 0 0 0 2281701376 100663424 0 0 0 1026 268435456 64 0 4202496 0 65536 0 0 0 0 0 0 0 0 0 0 0 0 0 0 0 0 0 0 0 0 0 1073741824 0 1048832 2097152 0 0 0 0 0 0 0 0 0 4194304 0 128 0 1073741824 0 0 0 0 4096 0 0 4194304 0 1342177280 1048576 64 0 0 0 8396800 0 0 0 0 0 0 1 0 0 1064992 2147483648 0 2 0 0 0 0 536870912 0 0 0 0 0 0 0 0 0 0 32768 16 0 0 0 67108864 0 0 0 0 0 0 0 65536 32 16 128 0 0 0 0 0 0 0 0 0 0 0 0 0 0 0 0 0 64 0 0 134217728 16809984 0 0 0 0 0 0 0 0 0 0 2147483648 16777216 524288 32 262144 0 524290 1024 0 8388608 786432 0 0 0 0 0 512 0 0 0 16448 0 0 0 32768 0 134217729 2147483648
shrinkage=0.08


Tree=3
num_leaves=10
num_cat=9
split_feature=1 1 1 5 5 13 8 8 13
split_gain=1.79809e+06 344202 174907 115252 78544 20005.9 16617.9 13946.3 10487.6
threshold=0 1 2 3 4 5 6 7 8
decision_type=1 1 1 1 1 1 1 1 1
left_child=1 3 -2 -1 -3 -5 -7 -6 -9
right_child=2 4 -4 5 7 6 -8 8 -10
leaf_value=0.060103991580051822 -0.025364347658964111 0.021917745555227647 -0.060359512968977271 0.039228542056407877 -0.063910587428003957 -0.088662752415209115 0.024910834305320276 -0.0037452883559358631 0.0059122753740252967
leaf_weight=1098344.7756466866 1537933.0414671898 1351496.3137376308 2253409.1320960522 864453.5524045229 22386.997079372406 8274.8451409339905 1760418.726937294 2185948.8064249754 1072840.6977955103
leaf_count=768218 1360592 1062559 2166030 621637 19547 6936 1289728 1774988 860703
internal_value=0 0.253152 -0.577051 0.479184 0.0710886 0.365675 0.304739 -0.0124783 -0.00707346
internal_weight=0 8.36416e+06 3.79134e+06 3.73149e+06 4.63267e+06 2.63315e+06 1.76869e+06 3.28118e+06 3.25879e+06
internal_count=9930938 6404316 3526622 2686519 3717797 1918301 1296664 2655238 2635691
cat_boundaries=0 1 2 3 4 5 6 7 8 9
cat_threshold=116 64 1 6 6 2 4 268435460 1
shrinkage=0.08


Tree=4
num_leaves=10
num_cat=9
split_feature=0 0 0 0 0 0 0 0 0
split_gain=3.23054e+06 1.09253e+06 776900 590075 473794 349750 324064 296664 307614
threshold=0 1 2 3 4 5 6 7 8
decision_type=9 9 9 9 9 9 9 9 9
left_child=-1 -2 -3 -4 -5 -6 -7 -8 -9
right_child=1 2 3 4 5 6 7 8 -10
leaf_value=0.21334785092241026 0.13844344743639689 0.1233124756129719 0.10909592042672013 0.097376633348822184 0.089556956619759251 0.085525918667902337 0.082970503882750429 0.080071151221361006 -0.028108863294151291
leaf_weight=435977.71324586868 315358.56637346745 263302.03648781776 237227.47894442081 221453.32068133354 180529.33198899031 173975.99914878607 161581.90164905787 171101.38104581833 9978369.6047399044
leaf_count=104558 104734 104582 104545 104272 104551 104204 104465 104639 8990388
internal_value=0 -0.105472 -0.156319 -0.196504 -0.230502 -0.260562 -0.284324 -0.307161 -0.328563
internal_weight=0 1.17029e+07 1.13875e+07 1.11242e+07 1.0887e+07 1.06656e+07 1.0485e+07 1.03111e+07 1.01495e+07
internal_count=9930938 9826380 9721646 9617064 9512519 9408247 9303696 9199492 9095027
cat_boundaries=0 95 190 284 378 473 563 658 752 847
cat_threshold=0 0 0 0 0 0 0 0 0 0 0 0 0 0 0 0 0 0 0 0 0 0 0 0 0 0 0 268435456 0 0 0 272630784 0 0 0 0 0 0 0 0 0 0 0 0 0 0 0 0 0 0 524288 0 0 0 4194304 0 0 0 0 0 0 0 0 0 0 0 0 256 1024 0 0 0 525312 256 0 67108864 262144 4096 66560 0 67108864 2097920 0 0 0 8 134217728 201326592 32768 0 33554432 33554496 537001988 0 2097152 0 32768 0 0 0 0 0 0 0 0 0 0 0 0 0 0 0 0 128 0 2147483648 0 0 0 0 0 536870912 2097152 8194 67108864 8192 0 0 1048576 0 0 0 0 0 0 0 0 0 0 0 0 0 0 65544 0 1073741824 0 0 0 0 0 0 0 0 0 2048 0 0 0 0 0 0 536870912 0 16777216 0 4194304 65 0 0 0 67108864 0 8388608 0 0 0 0 1140850688 134217728 1048612 524288 0 0 2048 0 8192 0 0 16908288 0 0 0 0 0 0 0 4 0 0 33554432 1024 0 0 0 0 0 0 0 32 0 64 0 8 0 0 8 0 0 262144 16 2048 0 65536 0 0 0 0 0 0 0 0 0 0 0 0 0 0 1073742848 512 0 2 1073741824 0 16 0 0 0 0 0 134217728 0 0 0 0 4194304 0 0 0 0 0 65536 0 8388608 0 0 0 0 0 49152 0 0 4112 8388608 0 0 8192 1048576 0 0 0 4194304 2097152 1073741826 0 0 0 0 33554432 8192 0 4194304 16 0 528384 0 0 0 0 0 0 0 0 1048576 131104 0 0 4227072 0 8192 1073741824 0 0 0 50331648 4 0 8192 0 0 0 0 0 0 0 0 0 0 0 0 0 0 0 4096 65536 0 0 0 0 0 0 0 0 0 0 0 0 0 1 0 0 0 2097152 0 32768 0 536870912 0 0 0 1048576 0 0 33554432 8192 0 64 0 0 268435456 0 0 0 0 67112960 512 0 32 262272 0 0 0 0 8388608 0 0 16384 0 0 512 2048 0 0 0 0 0 0 0 134217728 0 128 0 67108928 0 0 0 0 0 0 0 0 0 0 0 0 0 0 0 0 0 0 0 0 0 0 0 0 0 0 0 0 0 0 0 0 0 4194304 16384 32 4 0 0 0 0 0 128 0 0 134217728 536870912 0 16777216 0 0 0 0 512 512 4096 0 0 4198400 512 0 4 0 0 1342177280 0 128 266240 0 536870916 24576 0 0 0 16384 0 1024 4096 1090519040 0 0 0 0 0 0 0 0 0 0 0 0 0 8 0 0 0 0 0 1 4 0 33554432 16 32800 4 0 0 4194304 0 0 0 0 0 0 0 0 4096 0 0 0 0 2048 2147483648 64 0 5264 0 0 0 0 0 0 0 0 524288 0 256 268435456 262144 0 0 0 0 0 0 0 33554432 32 0 0 0 0 0 0 0 128 0 0 0 4096 0 1024 0 0 0 0 0 16777218 0 4227072 0 67108864 32 0 0 0 0 0 0 0 0 0 0 0 0 0 0 1 0 16384 32 0 33554432 0 0 0 0 0 0 0 0 0 0 0 0 0 0 0 0 256 0 0 0 512 256 0 512 0 33554432 67108864 0 0 0 0 0 1048576 0 0 0 65536 0 0 0 4194304 0 0 0 0 135266304 8519680 134217728 2181038084 0 0 32 0 4096 2 0 0 0 0 0 0 256 0 0 0 4 0 16 0 0 4194304 0 0 256 0 0 0 0 0 0 0 0 0 0 570425344 0 0 2097152 512 0 0 0 0 0 0 0 0 0 0 0 0 0 0 0 0 0 0 0 0 0 0 16777216 2097152 16384 8388608 0 0 0 8192 0 0 0 8192 0 0 0 0 0 0 16777217 16384 0 0 268435456 128 2129920 0 0 0 0 0 0 1032 0 0 8 4096 0 16 4 0 1048576 0 16 8388608 4100 2147483648 0 0 0 0 0 0 536870912 0 0 0 0 16777216 0 0 0 0 0 2281701376 67108864 0 0 0 1024 131072 64 0 4194320 0 0 0 0 0 0 0 0 0 0 0 16777216 0 0 0 0 0 0 0 0 0 0 0 32 0 256 2097152 0 0 0 0 0 16777216 0 0 0 4194304 0 128 0 1073741824 33554432 0 0 0 0 0 0 0 0 0 0 0 16 8 128 0 32768 262144 9216 0 0 65568 131072 65536 0 4194304
shrinkage=0.08


Tree=5
num_leaves=10
num_cat=8
split_feature=0 12 0 0 0 0 0 0 0
split_gain=2.46995e+06 1.01295e+06 736240 369290 288408 275954 294577 274111 266516
threshold=0 1.6850585937500002 1 2 3 4 5 6 7
decision_type=9 2 9 9 9 9 9 9 9
left_child=8 -2 -3 -4 -5 -6 -7 -8 -1
right_child=1 2 3 4 5 6 7 -9 -10
leaf_value=0.31462656535327232 0.044996605919464104 0.10559351817469956 0.085024789713534332 0.079614323235076889 0.076574200429585071 0.073841269669435605 0.071480254778472252 -0.032656939438091545 0.15023783489763562
leaf_weight=74391.106393575668 1927912.7810602188 296568.77595233917 200309.78920274973 166308.25640028715 162591.42823207378 176075.10595494509 164895.30223852396 8509960.4504726529 417215.16319394112
leaf_count=9850 1278258 103494 102471 103420 104675 104292 104217 7925458 94803
internal_value=0 -0.0994526 -0.231327 -0.280373 -0.309683 -0.33376 -0.357476 -0.383467 2.18899
internal_weight=0 1.16046e+07 9.67671e+06 9.38014e+06 9.17983e+06 9.01352e+06 8.85093e+06 8.67486e+06 491606
internal_count=9930938 9826285 8548027 8444533 8342062 8238642 8133967 8029675 104653
cat_boundaries=0 95 189 282 376 471 566 659 747
cat_threshold=0 0 0 0 0 0 0 0 0 0 0 0 0 0 0 0 0 0 0 0 2147483648 0 0 0 0 0 536870912 268435456 0 0 8192 4194304 0 1048576 0 0 0 0 0 0 0 0 0 0 0 0 0 0 0 0 1074266112 0 0 0 4194304 0 0 0 0 0 0 0 0 0 0 0 0 256 0 0 0 0 1025 256 0 67108864 262144 4096 66560 0 0 512 0 0 134217728 44 134217728 201326592 0 0 33554432 33554496 4 0 16908288 0 0 0 0 0 0 0 0 0 0 33554432 0 0 0 0 0 0 0 0 32 131072 0 0 0 0 0 0 0 0 0 16 0 0 8192 0 0 0 0 0 0 0 0 0 0 0 0 0 0 66568 4608 0 2 1073741824 0 16 0 0 0 0 0 134219776 0 0 0 0 4194304 0 536870912 0 0 0 0 524288 0 0 0 0 0 0 33554432 67108864 0 0 75497472 0 1048576 0 1024 32768 0 67108864 8704 2097152 1073741858 0 0 0 0 33554432 0 0 0 0 0 0 0 0 0 0 0 0 0 0 1048576 0 2147483648 0 32770 134217792 32 1073741824 0 0 0 16777216 0 0 0 128 0 0 0 0 0 0 0 0 0 0 0 0 0 0 2097152 65538 0 0 1048576 0 0 0 0 0 16384 32 0 0 0 1 0 8192 0 0 0 0 536870912 0 16777728 0 0 0 0 0 1049088 0 0 0 4096 1536 1073741824 0 262144 64 0 0 128 4096 0 0 0 0 0 0 0 0 0 0 0 0 0 0 0 0 0 16777216 32768 33554576 134217728 0 0 0 268435456 0 0 12288 0 65536 0 0 16 16 0 1048576 0 0 0 0 0 0 0 0 0 0 0 0 0 0 0 2048 0 0 0 150994944 21004288 128 0 2048 0 0 0 0 524288 0 536870912 268435456 16777216 0 0 0 134217728 0 0 0 34078720 524288 0 0 0 0 0 0 0 0 0 0 0 268435456 0 1 0 131072 0 0 0 0 2 0 0 0 0 0 0 0 0 0 0 0 0 0 0 0 0 0 0 67108864 0 0 0 1 0 4 1048576 33619968 33554432 32768 4 0 0 0 0 0 268435456 0 0 0 0 0 0 0 0 0 0 1073741824 2147483712 65 0 128 512 0 0 0 0 0 0 0 0 2147483648 0 2147483648 0 524288 0 262144 0 0 0 0 4194304 32 268435456 0 0 0 0 402653696 0 134217728 0 0 0 5120 0 0 0 0 1048576 0 0 0 0 16384 0 0 0 0 0 0 0 0 0 0 0 0 0 0 0 0 0 0 0 0 0 0 2 1 16384 32 0 0 32 0 0 0 0 0 0 0 0 0 0 0 0 4096 0 0 0 2097152 16384 0 0 33554688 0 8192 0 37748736 67108864 0 0 0 0 0 1048576 0 0 278528 0 0 0 0 4198400 1024 0 0 0 0 8388608 0 2181038084 0 0 0 128 4096 4 0 0 0 0 0 134218240 2147483904 0 0 0 0 0 0 0 0 0 0 0 0 0 0 0 0 0 0 0 0 128 0 33554432 0 0 0 0 16 1024 0 2048 0 0 0 8 0 0 0 0 16777216 0 0 0 0 0 0 0 0 0 16777472 0 0 8388608 512 0 0 0 0 0 0 16785408 0 0 0 4196352 0 0 16777217 0 65536 0 0 0 32768 0 0 8388608 0 1048576 0 134218752 0 0 0 4128 0 16 16386 0 0 32 163840 8388608 0 0 0 0 0 0 0 0 0 0 0 0 0 0 0 0 0 0 0 0 0 0 0 0 0 0 0 0 0 0 0 0 0 0 0 0 0 0 0 0 0 0 0 0 0 0 0 0 0 0 0 0 0 0 0 0 0 0 0 0 0 0 0 0 0 0 0 0 0 0 0 0 1024 0 0 0 0 4096 0 0 0 0 0 0 0 0 0 67108864
shrinkage=0.08


Tree=6
num_leaves=10
num_cat=6
split_feature=12 3 3 2 2 12 12 2 2
split_gain=1.53176e+06 529395 271784 215518 207032 202725 154695 111081 66788.9
threshold=1.6850585937500002 0 1 2 3 1.5200195312500002 0.72021484375000011 4 5
decision_type=2 1 1 1 1 2 2 1 1
left_child=2 3 6 -2 -4 8 -1 -3 -6
right_child=1 7 4 -5 5 -7 -8 -9 -10
leaf_value=0.04632955951938679 0.028198531308487994 0.0020609926011678566 0.12421907813234677 -0.0076565038632893977 -0.0083170470196372998 0.12607984699175626 -0.03816029794564553 -0.038104681056654349 0.051519523520078984
leaf_weight=311530.72648304701 1557238.1720405221 492261.90052706003 388069.29997289181 3449620.9197385311 134905.82413232327 234760.19351404905 249978.27154511213 4204695.6771467924 1037952.2407574654
leaf_count=199373 1208826 458762 183187 2800802 80327 75868 235180 4115883 572730
internal_value=0 -0.182537 0.716171 0.0436901 0.90605 0.727747 0.108944 -0.42369 0.557966
internal_weight=0 9.70382e+06 2.3572e+06 5.00686e+06 1.79569e+06 1.40762e+06 561509 4.69696e+06 1.17286e+06
internal_count=9930938 8584273 1346665 4009628 912112 728925 434553 4574645 653057
cat_boundaries=0 1 2 3 4 5 6
cat_threshold=4 1 261 260 4 8
shrinkage=0.08


Tree=7
num_leaves=10
num_cat=9
split_feature=0 0 0 0 0 0 0 0 0
split_gain=1.71837e+06 579154 537747 345281 252683 254278 225275 235190 210239
threshold=0 1 2 3 4 5 6 7 8
decision_type=9 9 9 9 9 9 9 9 9
left_child=-1 -2 -3 -4 -5 -6 -7 -8 -9
right_child=1 2 3 4 5 6 7 8 -10
leaf_value=0.13878509773756148 0.094386334316302958 0.087579365372851103 0.07994989667306733 0.074324564449945424 0.07213902261048076 0.070205390409695603 0.068621671089158648 0.066635957826612871 -0.023945678710390189
leaf_weight=540666.97858858109 348618.17863821983 347839.0300232172 247355.92524945736 195967.09492796659 199202.42936342955 177502.99677014351 185093.21432304382 166821.24052786827 9628542.3144054413
leaf_count=104732 104482 104347 104765 104704 104433 104606 104263 104812 8989794
internal_value=0 -0.0893681 -0.129058 -0.168473 -0.195847 -0.217132 -0.239074 -0.258935 -0.280037
internal_weight=0 1.14969e+07 1.11483e+07 1.08005e+07 1.05531e+07 1.03572e+07 1.0158e+07 9.98046e+06 9.79536e+06
internal_count=9930938 9826206 9721724 9617377 9512612 9407908 9303475 9198869 9094606
cat_boundaries=0 95 190 284 378 472 567 660 755 850
cat_threshold=0 32768 0 0 0 0 0 0 0 0 0 0 0 0 0 0 0 0 0 0 2147483648 0 0 0 0 0 0 0 2 0 0 268436480 0 0 0 0 0 0 0 0 0 0 0 0 0 0 0 0 0 0 1073741824 0 0 0 4194304 0 0 0 0 0 0 0 0 0 0 0 0 0 1024 0 0 0 525376 256 0 67108864 67371008 4096 8389632 0 67108864 512 0 0 0 1048584 134217728 201326592 0 0 33554432 33562688 536870916 0 131072 0 0 0 0 0 0 0 4 0 0 0 1024 0 0 0 0 0 0 128 0 0 0 0 8 0 0 8 2097152 8192 67108864 16 2048 0 0 0 0 0 0 0 0 0 0 0 0 0 0 0 0 65544 0 524288 0 0 0 0 0 0 0 0 0 2048 0 0 0 0 0 0 536870912 0 16777216 0 4194304 0 8388608 0 0 0 0 0 16384 0 256 4112 1149239296 0 0 0 0 32768 2048 0 4194304 131072 1073741824 18874368 0 0 0 0 0 0 0 0 0 0 33554432 0 0 0 0 0 0 0 0 32 131072 0 0 0 0 8192 536870912 268435456 0 262144 8192 4194304 0 1122304 0 0 0 0 0 0 0 0 0 0 0 0 0 0 1073742848 512 0 2 0 0 16 0 0 0 0 0 134217728 0 0 0 0 4194304 0 256 2097152 0 0 65536 0 0 0 0 0 0 65536 32768 0 2097152 0 0 134217728 36 532480 0 0 0 0 0 2097152 2 0 0 0 0 33554432 8192 0 4194304 16 0 524288 0 0 0 0 0 0 16777216 2281701376 68157440 0 64 0 4228096 64 0 1073741824 4194304 4194304 0 16777216 0 0 0 256 0 0 0 0 0 0 0 0 0 0 0 0 0 0 4096 65536 0 1073742080 0 0 0 0 0 0 0 0 0 0 0 0 0 0 0 0 0 0 0 536870913 0 0 0 0 0 0 33554432 0 0 64 0 0 0 0 1048576 0 0 67108864 512 0 32 8192 0 0 0 0 0 0 0 0 0 16781312 256 0 0 0 0 0 0 32768 33554560 134217760 2147483648 0 2 402653184 32 0 8192 0 65536 0 65540 16 0 0 1048576 0 0 0 0 0 0 0 0 0 0 0 0 0 0 0 0 0 0 0 0 0 0 0 16384 0 0 0 0 1 0 0 0 0 0 32768 0 128 0 64 0 0 0 0 512 0 16 0 4096 0 512 0 0 0 0 69632 0 0 4 32896 0 0 0 0 8388608 0 0 0 0 0 67109376 0 0 0 0 0 0 0 16 0 0 0 0 0 0 0 4096 0 0 34603008 33554432 0 32784 0 0 0 0 0 0 0 0 0 0 536870912 0 0 0 0 0 0 0 0 1048576 0 0 0 0 0 2048 0 0 0 0 0 0 128 0 1073741824 0 0 536870912 0 16777216 0 0 1048576 0 0 536870912 8192 0 0 128 1536 1342177280 262144 0 0 0 134217728 128 0 268435456 4 0 0 2 0 16384 0 0 0 0 4194304 0 0 2048 0 0 0 0 0 0 0 2048 0 0 67108864 0 4 0 0 0 4 0 65 0 32 4 0 0 0 0 0 0 0 0 0 0 0 4096 0 0 2097152 2 2048 0 256 2097152 0 32768 0 4194304 0 536870944 0 0 0 0 0 8192 0 0 0 0 0 136314880 512 0 0 0 262144 0 0 4096 0 0 0 0 32768 0 262144 0 0 0 1 4096 262144 0 0 0 2 0 0 0 0 0 0 0 0 0 0 0 0 0 0 0 0 0 4096 0 67108864 0 0 2 1 16384 32 0 33554432 0 0 0 0 0 0 0 268435456 0 0 0 0 0 0 0 0 0 0 0 0 0 0 134217856 20971520 0 0 0 0 4 0 0 524288 2147483648 0 268435456 16777344 0 0 0 268435456 0 0 33554432 34078720 0 0 1048576 0 0 128 4194304 0 0 0 0 64 268435456 0 0 262144 512 536870912 0 0 0 0 0 0 0 0 1073758208 0 0 0 0 0 0 0 0 0 0 0 128 0 128 0 0 0 0 17 1024 0 0 0 268435456 0 0 0 0 0 0 16777216 0 0 0 0 0 0 0 0 131072 0 0 1073741824 2147483648 0 16640 1024 512 128 0 0 0 0 0 0 0 0 536870912 2147483648 0 0 0 0 0 4096 1024 0 0 0 512 0 32768 0 0 402653184 33554432 134217728 0 0 0 1024 0 0 64 139264 1048576
shrinkage=0.08


Tree=8
num_leaves=10
num_cat=7
split_feature=12 3 2 2 3 2 12 2 2
split_gain=1.10151e+06 447460 179659 176955 154028 100153 93013.9 64052.1 62792.2
threshold=1.6850585937500002 0 1 2 3 4 1.5200195312500002 5 6
decision_type=2 1 1 1 1 1 2 1 1
left_child=3 2 -2 -1 6 -3 7 -5 -8
right_child=1 5 -4 4 -6 -7 8 -9 -10
leaf_value=0.10638784443313867 0.025656319102524298 0.0029275889619927117 -0.0069447746836856263 0.072565991169179014 0.014155706849189818 -0.035538682277508594 0.14738478777480274 0.030438112891344581 0.069197755986040291
leaf_weight=280492.99015629292 1583583.5914678574 485584.6652482152 3414454.6993712187 357772.85619044304 931875.67859005928 4015523.8288209438 101965.76753568649 651900.71912992001 185225.93547296524
leaf_count=133366 1207899 458104 2801478 174086 617968 4116773 24923 346168 50173
internal_value=0 -0.163658 0.0423078 0.581287 0.487071 -0.392362 0.709918 0.567087 1.21206
internal_weight=0 9.49915e+06 4.99804e+06 2.50923e+06 2.22874e+06 4.50111e+06 1.29687e+06 1.00967e+06 287192
internal_count=9930938 8584254 4009377 1346684 1213318 4574877 595350 520254 75096
cat_boundaries=0 1 2 3 4 5 6 7
cat_threshold=4 261 4 4 4 769 608
shrinkage=0.08


Tree=9
num_leaves=10
num_cat=9
split_feature=0 0 3 0 0 0 0 0 0
split_gain=1.23192e+06 408347 357800 334672 277387 250992 237786 265172 191567
threshold=0 1 2 3 4 5 6 7 8
decision_type=9 9 1 9 9 9 9 9 9
left_child=-1 -2 5 -4 -5 -3 -6 -8 -9
right_child=1 2 3 4 6 -7 7 8 -10
leaf_value=0.11424516866702496 0.076226307735168711 0.071207158978004434 0.071294569325444077 0.066298496613165267 0.063091496258427054 0.00040017986588677712 0.059424996170058607 0.052078811943102502 -0.042498070008438874
leaf_weight=569469.82341694832 371110.74593496323 340238.49411320686 224298.97729635239 189660.71892791986 161485.57121145725 5491325.9185358882 180423.20672619343 141548.5519438982 4322738.1518726349
leaf_count=104408 104680 104500 104758 104304 104671 4429370 104630 104794 4664823
internal_value=0 -0.0789463 -0.113594 -0.30377 -0.357421 0.0566436 -0.40423 -0.445705 -0.49374
internal_weight=0 1.14228e+07 1.10517e+07 5.22016e+06 4.99586e+06 5.83156e+06 4.8062e+06 4.64471e+06 4.46429e+06
internal_count=9930938 9826530 9721850 5187980 5083222 4533870 4978918 4874247 4769617
cat_boundaries=0 95 189 190 234 281 376 417 457 521
cat_threshold=0 0 0 0 0 0 0 0 0 0 33554432 0 0 0 0 0 0 0 128 32 2147614720 0 0 0 0 0 0 0 8192 0 16 0 0 0 0 0 0 0 0 0 0 0 0 0 0 0 0 0 65544 0 524288 0 0 0 4194304 0 0 0 0 0 2048 0 0 0 0 0 0 536870912 0 0 0 0 1024 256 0 67108864 262144 4096 1024 0 0 0 0 67108864 0 8 134217728 201326592 32768 0 33554432 33554496 4 1073741824 16908288 0 32768 0 0 33554432 0 0 0 0 0 0 1024 0 0 0 0 0 0 0 0 0 0 0 32776 0 0 1610612744 2097152 2 67108864 0 268438528 0 8192 0 0 0 0 0 0 0 0 0 0 0 0 0 0 0 512 1073741824 2 0 0 0 0 0 0 0 0 134217728 0 0 0 0 0 0 0 0 16777216 0 0 524288 0 0 0 0 0 0 16384 67108864 256 0 1082130432 0 1048576 0 0 0 2048 0 8192 2228224 2 4 8 0 0 0 0 0 0 4 16 0 524288 0 0 0 0 0 0 0 2281701376 68157568 134217728 2147483648 33554432 1026 134217792 32 0 272637952 4194368 327680 16787456 4194304 0 1048576 264 0 0 0 0 0 0 0 0 8192 16384 1024 0 0 16384 8192 0 4198400 0 0 4096 0 0 0 0 0 0 16777216 32768 33554448 0 64 0 71303168 268435456 8192 0 4096 32768 32772 1048576 33619969 16 98320 4 1048576 0 0 0 0 0 0 0 0 536870912 0 4096 0 0 0 0 0 0 0 0 0 0 0 0 0 0 0 0 0 0 0 0 0 0 0 0 0 0 0 0 0 0 0 0 0 0 0 0 0 0 0 0 0 0 0 0 0 0 0 0 1024 4096 0 0 1073741888 1 16 16777216 0 0 33554432 0 0 0 0 0 0 4194304 0 0 2360320 0 0 4259840 64 8388608 0 0 67108864 0 276889600 33587200 0 0 4112 0 134217728 32 532480 0 0 0 0 4194304 536870912 32 2097152 128 0 0 0 2 0 0 2 20971520 32768 256 68157440 0 0 0 0 0 0 0 0 2176 130 4104 16 0 4 0 19 1 16384 32 524356 570425376 32 128 0 0 0 0 0 268435456 2684624896 0 8388610 4 0 8388624 1024 16777216 16384 4194304 16777216 768 16777248 0 0 0 0 0 0 512 32 0 536870912 0 131072 2097152 512 0 1024 2147483648 570425344 1048576 268435456 0 0 0 0 4194304 0 16777216 32768 8388608 8192 0 1049088 0 0 537919488 1073741824 0 0 0 2048 0 0 0 0 0 0 536870916 0 65536 640 536870912 67126272 2147483728 2050 0 1073743904 258 64 0 512 0 64 0 0 0 0 0 0 0 0 0 0 0 0 0 0 0 0 0 0 0 0 0 0 0 0 0 0 0 0 32
shrinkage=0.08


end of trees

feature importances:
item_id=60
store_id=9
sell_price=6
cat_id=5
dept_id=4
wday=2
event_name_1=2
snap_flag=2

parameters:
[boosting: gbdt]
[objective: tweedie]
[metric: rmse]
[tree_learner: serial]
[device_type: cpu]
[data: ]
[valid: ]
[num_iterations: 100]
[learning_rate: 0.08]
[num_leaves: 10]
[num_threads: 8]
[max_depth: -1]
[min_data_in_leaf: 100]
[min_sum_hessian_in_leaf: 0.001]
[bagging_fraction: 0.85]
[pos_bagging_fraction: 1]
[neg_bagging_fraction: 1]
[bagging_freq: 1]
[bagging_seed: 3]
[feature_fraction: 0.6]
[feature_fraction_bynode: 1]
[feature_fraction_seed: 2]
[early_stopping_round: 0]
[first_metric_only: 0]
[max_delta_step: 0]
[lambda_l1: 0]
[lambda_l2: 0.1]
[min_gain_to_split: 0]
[drop_rate: 0.1]
[max_drop: 50]
[skip_drop: 0.5]
[xgboost_dart_mode: 0]
[uniform_drop: 0]
[drop_seed: 4]
[top_rate: 0.2]
[other_rate: 0.1]
[min_data_per_group: 100]
[max_cat_threshold: 32]
[cat_l2: 10]
[cat_smooth: 10]
[max_cat_to_onehot: 4]
[top_k: 20]
[monotone_constraints: ]
[feature_contri: ]
[forcedsplits_filename: ]
[forcedbins_filename: ]
[refit_decay_rate: 0.9]
[cegb_tradeoff: 1]
[cegb_penalty_split: 0]
[cegb_penalty_feature_lazy: ]
[cegb_penalty_feature_coupled: ]
[verbosity: 1]
[max_bin: 255]
[max_bin_by_feature: ]
[min_data_in_bin: 3]
[bin_construct_sample_cnt: 200000]
[histogram_pool_size: -1]
[data_random_seed: 1]
[output_model: LightGBM_model.txt]
[snapshot_freq: -1]
[input_model: ]
[output_result: LightGBM_predict_result.txt]
[initscore_filename: ]
[valid_data_initscores: ]
[pre_partition: 0]
[enable_bundle: 1]
[max_conflict_rate: 0]
[is_enable_sparse: 1]
[sparse_threshold: 0.8]
[use_missing: 1]
[zero_as_missing: 0]
[two_round: 0]
[save_binary: 0]
[header: 0]
[label_column: ]
[weight_column: ]
[group_column: ]
[ignore_column: ]
[categorical_feature: ]
[predict_raw_score: 0]
[predict_leaf_index: 0]
[predict_contrib: 0]
[num_iteration_predict: -1]
[pred_early_stop: 0]
[pred_early_stop_freq: 10]
[pred_early_stop_margin: 10]
[convert_model_language: ]
[convert_model: gbdt_prediction.cpp]
[num_class: 1]
[is_unbalance: 0]
[scale_pos_weight: 1]
[sigmoid: 1]
[boost_from_average: 1]
[reg_sqrt: 0]
[alpha: 0.9]
[fair_c: 1]
[poisson_max_delta_step: 0.7]
[tweedie_variance_power: 1.1]
[max_position: 20]
[lambdamart_norm: 1]
[label_gain: ]
[metric_freq: 1]
[is_provide_training_metric: 0]
[eval_at: ]
[multi_error_top_k: 1]
[num_machines: 1]
[local_listen_port: 12400]
[time_out: 120]
[machine_list_filename: ]
[machines: ]
[gpu_platform_id: -1]
[gpu_device_id: -1]
[gpu_use_dp: 0]

end of parameters

pandas_categorical:[]
